digraph Tree {
node [shape=box] ;
0 [label="invoices_30days <= 18.25\ngini = 0.5\nsamples = 10000\nvalue = [4968, 5032]"] ;
1 [label="days_live <= 730.5\ngini = 0.1569\nsamples = 4370\nvalue = [375, 3995]"] ;
0 -> 1 [labeldistance=2.5, labelangle=45, headlabel="True"] ;
2 [label="days_live <= 0.5\ngini = 0.1322\nsamples = 4200\nvalue = [299, 3901]"] ;
1 -> 2 ;
3 [label="leads_30days <= 2.0\ngini = 0.4989\nsamples = 42\nvalue = [20, 22]"] ;
2 -> 3 ;
4 [label="gini = 0.4997\nsamples = 39\nvalue = [20, 19]"] ;
3 -> 4 ;
5 [label="gini = 0.0\nsamples = 3\nvalue = [0, 3]"] ;
3 -> 5 ;
6 [label="spend_30days <= 116.57\ngini = 0.1252\nsamples = 4158\nvalue = [279, 3879]"] ;
2 -> 6 ;
7 [label="gini = 0.0725\nsamples = 2654\nvalue = [100, 2554]"] ;
6 -> 7 ;
8 [label="gini = 0.2097\nsamples = 1504\nvalue = [179, 1325]"] ;
6 -> 8 ;
9 [label="days_live <= 973.5\ngini = 0.4944\nsamples = 170\nvalue = [76, 94]"] ;
1 -> 9 ;
10 [label="spend_30days <= 129.755\ngini = 0.4478\nsamples = 130\nvalue = [44, 86]"] ;
9 -> 10 ;
11 [label="gini = 0.3976\nsamples = 95\nvalue = [26, 69]"] ;
10 -> 11 ;
12 [label="gini = 0.4996\nsamples = 35\nvalue = [18, 17]"] ;
10 -> 12 ;
13 [label="logins_30days <= 0.5\ngini = 0.32\nsamples = 40\nvalue = [32, 8]"] ;
9 -> 13 ;
14 [label="gini = 0.2076\nsamples = 34\nvalue = [30, 4]"] ;
13 -> 14 ;
15 [label="gini = 0.4444\nsamples = 6\nvalue = [2, 4]"] ;
13 -> 15 ;
16 [label="days_live <= 397.5\ngini = 0.3005\nsamples = 5630\nvalue = [4593, 1037]"] ;
0 -> 16 [labeldistance=2.5, labelangle=-45, headlabel="False"] ;
17 [label="spend_30days <= 69.445\ngini = 0.4041\nsamples = 3153\nvalue = [2267, 886]"] ;
16 -> 17 ;
18 [label="days_live <= 189.5\ngini = 0.5\nsamples = 1030\nvalue = [510, 520]"] ;
17 -> 18 ;
19 [label="gini = 0.4822\nsamples = 604\nvalue = [245, 359]"] ;
18 -> 19 ;
20 [label="gini = 0.4702\nsamples = 426\nvalue = [265, 161]"] ;
18 -> 20 ;
21 [label="invoices_30days <= 132.12\ngini = 0.2854\nsamples = 2123\nvalue = [1757, 366]"] ;
17 -> 21 ;
22 [label="gini = 0.4518\nsamples = 58\nvalue = [20, 38]"] ;
21 -> 22 ;
23 [label="gini = 0.2672\nsamples = 2065\nvalue = [1737, 328]"] ;
21 -> 23 ;
24 [label="invoices_30days <= 218.5\ngini = 0.1145\nsamples = 2477\nvalue = [2326, 151]"] ;
16 -> 24 ;
25 [label="days_live <= 852.0\ngini = 0.1884\nsamples = 1149\nvalue = [1028, 121]"] ;
24 -> 25 ;
26 [label="gini = 0.2839\nsamples = 613\nvalue = [508, 105]"] ;
25 -> 26 ;
27 [label="gini = 0.0579\nsamples = 536\nvalue = [520, 16]"] ;
25 -> 27 ;
28 [label="leads_30days <= 0.5\ngini = 0.0442\nsamples = 1328\nvalue = [1298, 30]"] ;
24 -> 28 ;
29 [label="gini = 0.5\nsamples = 4\nvalue = [2, 2]"] ;
28 -> 29 ;
30 [label="gini = 0.0414\nsamples = 1324\nvalue = [1296, 28]"] ;
28 -> 30 ;
}